,NonParametric DML,Linear DML,Doubly Robust (Linear),Linear T Learner,Linear S Learner,Linear X Learner,NonParametric T Learner,NonParametric S Learner,NonParametric X Learner,Causal BART,Causal Forest,Propensity Score Matching,TMLE
0,0.2500190056378784,0.3507746099789648,0.21608121818220027,0.21404366074179504,0.18289702651612338,0.21315251415118341,0.19641556992081188,0.050140140063626326,0.14040515352426808,0.2993768397680707,0.20920446800893155,0.2867946613293304,0.2138030161362019
1,-0.11596545433166083,0.3848783061729446,0.3477920669621122,0.3840501892371788,0.3457651413997169,0.38259784565712307,0.3198494333920565,-0.006393416293673404,0.27394992695541975,0.3304825034204608,0.16427924050671172,0.5153059465482204,0.3815463696688204
2,-0.29256883595295924,-0.21355232083604525,-0.20475018688496616,-0.20270613599896703,-0.22396851656240124,-0.20341828546940022,-0.2528078645216232,-0.5485645783047683,-0.21427568830365895,-0.1672555515767593,-0.2329235227735622,-0.11750229670668655,-0.1997870623871567
3,-0.08528896312862155,-0.07525841968578328,-0.04930197582840412,-0.044988281066077995,-0.07000587259159419,-0.04552083821064867,-0.2179746696698439,-0.4884461364474233,-0.24612478757843004,-0.13342132335437307,-0.23231819174373003,0.03042251386188033,-0.04333537427034462
4,-0.2918333220029441,0.04029116003531463,-0.007284888273878076,-0.02891515892951424,-0.05274068493196227,-0.029578926151986984,-0.18656700362468737,-0.27111477211725976,-0.20715911704868306,-0.010828278671838554,-0.07157753507732423,0.03676310963917362,-0.028952731902616824
5,-0.5668809673116767,-0.5166423812850898,-0.49935990023059684,-0.5048878663083503,-0.5203857116488817,-0.5058431770798272,-0.46123965335098605,-0.6668620264339771,-0.4648470695099932,-0.42608432159469967,-0.4046327343955821,-0.3326035295156069,-0.5088680768338221
6,-0.1326747393410681,-0.24395841546922603,-0.2258551315760391,-0.23144982743433573,-0.2531579864227813,-0.2318424758099844,-0.22906757081035378,-0.34370871191838626,-0.17660653974333984,-0.2016883299453296,-0.1549932623182162,-0.1826265090292234,-0.23074270216823045
7,-0.44577830374130056,0.2870624530584318,0.17677540381852275,0.16091483581069999,0.1299935893971802,0.1606906892833342,0.20756550348169522,-0.036945480241767026,0.21299678383688847,0.27453955751924664,0.200381426721016,0.19649381334865756,0.16004883487085597
8,-0.05794633170545627,-0.067749280156703,-0.062014529064083446,-0.06440177456351615,-0.08675953307513917,-0.06499250144486224,-0.07110251173703985,-0.22702473443113358,-0.048874587550438386,0.04168522493749616,0.0390269758769497,0.010280875893083463,-0.061322791838678725
9,0.1380778078256204,0.29857109306377505,0.22824912753988658,0.21628809957418849,0.18755262547146878,0.21566558215963028,0.008610899372563319,-0.0035157912505157096,-0.053828635388235346,0.18036453837827793,0.2144217212855437,0.28514821652887856,0.2182341152882492
10,-0.012788101397024798,0.08979103019394596,0.10065778874533926,0.09857319825849498,0.06451228920668872,0.09583249015694517,-0.11051678739425452,-0.3408328740208887,-0.21794111681666672,0.04899376744396733,0.0774533943134934,0.16137402396098532,0.0980287962046702
11,-0.010082991941119834,0.08194830249443963,0.08008650511136373,0.05769454654375927,0.02900407567299923,0.05678448702037642,0.05903840971750407,-0.14267421163842342,0.08048118188019515,0.07056491902675455,0.0401522809781274,0.17507019047240657,0.07528242422565024
12,-0.5654712084145825,-0.2265139035745083,-0.2649345864263286,-0.26150964909427366,-0.2819026194180503,-0.2618945124754539,-0.23129438543792813,-0.4894069880274595,-0.17310469008400098,-0.2575879902713396,-0.40457614619786975,-0.21624424188580682,-0.26029323747228794
13,0.003008290696553617,0.0505777056283343,0.056965628311809846,0.030946204969430458,0.0007361947026462978,0.03016262043250273,-0.011246586049956875,-0.28291543552555454,-0.10863201204318873,-0.009516416932693117,-0.04388954373585641,0.12650047382472573,0.03213628963861592
14,-0.640804966231368,-0.41031771236814973,-0.40254084296241766,-0.38648470988557193,-0.4037883873132472,-0.3873618253701099,-0.38105486233041785,-0.6381605601604962,-0.37746131700564156,-0.4774317685599424,-0.40052073576320035,-0.3072220206985081,-0.3849418234586913
15,-0.4191084302592434,-0.025189803017767076,-0.047822277056766005,-0.004264761197851241,-0.03061243513657952,-0.004893787698025953,-0.12290443802975926,-0.23885048247148344,-0.17831275090146992,-0.034415675315505156,-0.151458788993442,0.10102859388189689,-0.005782901605912549
16,-0.4360473785268282,-0.4055581885775582,-0.4074174654186853,-0.4096448655285073,-0.42861216283207604,-0.4100736136734555,-0.5178589219054086,-0.694379822164011,-0.5386105948291685,-0.4059801061469944,-0.43912076057762794,-0.3314857589215583,-0.41043534329646847
17,-0.21580171981463914,0.095232380802172,0.06651501124779924,0.09983451573557489,0.07246064836978738,0.09976719535523637,0.06861758024128961,-0.23435645350968604,0.11336287538874035,0.043075175148442835,-0.024401015393808567,0.13163283015622773,0.09958052363844949
18,-0.2069134108015982,-0.2742760578979526,-0.1358379524885862,-0.24307213418008167,-0.2680128425597563,-0.24403399312207807,-0.2822532244863136,-0.40142371045817693,-0.3042816421587031,-0.2047407674036914,-0.1391199897759634,-0.14985515928772908,-0.24603899311160515
19,0.41669946987208917,0.2051208761532337,0.19633054095850233,0.1752116437143123,0.15214733929209956,0.17397164568818702,0.12508778710479196,0.11967990412632101,0.15987195501327167,0.1456194035182452,0.09877853194117758,0.26737936723479394,0.18523127239601056
20,0.22329820643249887,0.19299992478037908,0.17779222964414565,0.1913022935641473,0.16221893710852608,0.1906211595358256,0.0877671009953489,-0.019977966159018923,0.06430234453282213,0.20222814970493164,0.22903307480353496,0.28114751882839406,0.19305863821679625
21,0.3537028435685785,0.21526633024194242,0.2393976088269083,0.2457344210086101,0.2158459858231878,0.24538649267905965,0.1732227460098259,0.11056713017189268,0.12189140385807717,0.3006974015222381,0.2561222063468773,0.3369796626416046,0.24771691481979863
22,0.4626455189749683,0.44895152354622514,0.49913663370949224,0.47318527259591026,0.4381987333249273,0.47317839150736574,0.4273403791466701,0.26611957209274273,0.35907984789397807,0.5459960016586702,0.5319177255985259,0.5427982454766853,0.473294202447724
23,0.3237107798799612,0.3344627484159053,0.4663170642569936,0.47512039172209963,0.43982137874716143,0.47562755519051847,0.4642869469241735,0.03887626455320037,0.44178721069626703,0.4382734224151619,0.3523195121394158,0.3857421738730662,0.4790134038350049
24,0.5491448971004251,0.40463589284654766,0.4394207745116261,0.4383355508677269,0.404697202458453,0.4381561206704174,0.3568958274716554,0.1926278570286013,0.27694284990252793,0.4230317200443974,0.2539372551233581,0.4548256313811512,0.43853950917207185
25,0.04958257814604394,0.49754798068857786,0.4783999071102347,0.49637515816779354,0.4605147833247043,0.49563936281495646,0.45098358362321056,0.31258695477147347,0.3689602748109815,0.5199345430930709,0.3109392682716863,0.5887939098672941,0.4960133789601826
26,-0.15689177117307285,0.07750897232353737,0.14848554508444534,0.11836708396195283,0.09019453480389905,0.11771548362559736,0.06519536774304435,-0.11854082967464663,0.05980529538905777,0.19432949030136215,0.2412120251998091,0.23472458526759943,0.12245409861065282
27,-0.010942465445748395,0.11248686933940055,0.09314832663237094,0.1062017890194078,0.07804581463074212,0.10569762372343039,0.1333457602352739,-0.04915721700956954,0.1837128857346335,0.132684321455121,0.19048655500408596,0.10572012021428479,0.10671261894170136
28,-0.20410726007211166,0.182782365218495,0.2303599111647432,0.17237440814577631,0.1433006571445572,0.171629840231053,0.26008228121650245,-0.010628540703129463,0.31173536133146484,0.17279370596352717,0.13548339833280187,0.2712352801101747,0.17582635006558145
29,0.3066224254488117,0.30040589738332946,0.38549645827538903,0.3417308001205861,0.309350426821865,0.34115074479590146,0.3292021817693336,0.09615354730419923,0.3189684384793723,0.2737682347568564,0.2622093577852773,0.43974113110762425,0.34826047846277275
30,0.23794034741946146,0.09027159831429543,0.12119040134003867,0.1126139193966742,0.08435096848007917,0.11168638262295061,0.12374960920694278,-0.11984575284810162,0.082542078421036,0.09271155434694611,0.13022324096814963,0.1898249558780778,0.11355485343147764
31,0.13523064922365502,0.2595773951848419,0.28467429518883103,0.2837822297829591,0.2520635888671774,0.28322823087881366,0.20751339917332512,-0.0679231347023681,0.15744352521548355,0.25690895668677505,0.2301188701598158,0.20142871834888298,0.28464783853067677
32,0.4566517079272614,0.5379540678897861,0.587258564866739,0.5543614294514874,0.5180918378239596,0.5541422978001207,0.5113001201398102,0.15950089994594152,0.47085355946459617,0.4856364120092187,0.46387079444861556,0.5954931682940605,0.5548019669568478
33,-0.38003491702973136,0.07838790991785549,0.037671305293483615,0.06963117276271213,0.042290720333857834,0.06906268145052552,0.031149154483815167,-0.10295721703170946,0.017901874287566066,0.04445116799442883,0.09131978001302388,0.12076948530343046,0.07114789721187464
34,0.09908545879793573,0.2618479027434626,0.3585193108054905,0.3450438453149227,0.30912153065167436,0.34469039808731305,0.26677009645213245,0.06698571842042345,0.3001441514209924,0.3312556898647194,0.2744154719118401,0.3597001721669051,0.3412405009817996
35,0.12144812759691415,0.06555335049800082,0.08659033786778769,0.06404380921042763,0.03745155493736596,0.06295584621791628,0.03468401256253628,-0.18639166787366634,-0.034108627398547364,0.1509313467665483,0.06801684486504445,0.05243828597024858,0.07379613305984511
36,0.1291189516126352,-0.06682063325578014,-0.04625991376887595,-0.05011308506490031,-0.07491692072919576,-0.050507886892389386,-0.04725147064908586,-0.28493771263749745,-0.0023920711926028737,-0.12590620373930017,-0.05118889273538074,-0.0011229923881386217,-0.050262753025970275
37,0.5228125600450717,0.21819494105298265,0.223921466287891,0.22138036295880936,0.19508580944791687,0.2209844106544121,0.27856575354155,0.012557398436052303,0.30477778710552195,0.27741833963266327,0.18119550417513364,0.31552693518288,0.22714432881150537
38,0.2064979353673344,0.2621241183987848,0.31372410067741074,0.3062845542480128,0.27464451579571425,0.306360658233398,0.22904317214551662,0.0973722278753637,0.1822869646115879,0.3590093818619029,0.21961148826656318,0.22104473833714433,0.3065144891722873
39,0.025600761764666524,0.17414098365546637,0.19133100448532336,0.17279950904946073,0.1441504375353304,0.17025059534877984,0.06783589089126019,-0.15752718951850464,-0.03459431695789861,0.23468764431974654,0.1540424511756795,0.39726066490531653,0.18437534291747903
40,-0.0266740433101762,-0.2931091401372754,-0.2873431134328357,-0.30512494670084434,-0.3250338147542301,-0.30530389671802727,-0.024076924833580815,-0.2490195241626867,0.07645263679081293,-0.18750146683268265,-0.11896648118370012,-0.2632928534040151,-0.3055209908399501
41,-0.6096070859670653,-0.9344717696993217,-0.9105370648639906,-0.9238730615492657,-0.9318766212303745,-0.9241456841296609,-0.9244954106981838,-0.965996376235746,-0.8771610434523813,-0.9634198750837607,-0.9618503760053501,-0.866652020586842,-0.9244628935684986
42,0.07710358992212885,0.0738020261072907,-0.0006076223085103027,0.04039713140615242,0.010931914558334643,0.039539539445232696,0.011345757751748398,-0.17269017787389918,0.04212558795246757,-0.001238963979345975,-0.04730140962401008,0.1418676130597447,0.040559024669626575
43,0.2939772279504187,0.2167982469937788,0.23272027769405468,0.23210550833457932,0.19993648809672782,0.2317546323120694,0.3486162456755362,0.26062764506659786,0.5075866543007461,0.2480219828157726,0.3141600091263945,0.21324578848694253,0.23605638780315186
44,0.04786765652747427,0.06005778813507745,-0.07631955105959132,-0.010899525033898128,-0.03475629477268094,-0.011153020214200282,-0.07238395905743022,-0.1950961089215444,-0.066707784001514,-0.03790073581539111,-0.062359423173060646,0.04927995710148503,-0.007510299071627147
45,-0.5048464706799942,-0.0824845067668647,-0.20093197805359986,-0.08876805855222747,-0.1130527338719498,-0.09020660118447021,0.07023439720219882,-0.30391010697220544,0.059565981340373275,-0.07599258367499395,-0.051219227137314194,0.005093265810119485,-0.09015973893132401
46,0.24600051935923029,0.03660662795446501,0.07236300822566144,0.0854903059077301,0.059014666370582614,0.08505163148776806,0.09150108095860077,-0.12600664557564834,0.11032411152447619,0.15553828290171445,0.14694686403787616,0.10362405367512184,0.08669815196198538
47,0.06228996179467505,-0.3692054087744576,-0.38942706297416096,-0.39711217704343915,-0.4146562141441096,-0.3973713678801445,-0.2608329422665676,-0.4116752503808967,-0.20738343056745245,-0.29971705759018374,-0.28498963229300567,-0.3201935743109324,-0.3978133188306975
48,-0.614979271881684,-0.6096448096018043,-0.6040325874736329,-0.5915500307919704,-0.6052404904232319,-0.5912686887845908,-0.5474954913601899,-0.6064065115474253,-0.47083354812678724,-0.5725413341729476,-0.43098677934555285,-0.5783119959271571,-0.5894193755267294
49,-0.4904453317392695,0.2526514384385301,0.2525239517171163,0.24253988445121566,0.20784770007070685,0.2405949515813568,0.12255922499201821,-0.21275987771314764,0.09674294979812958,0.15958681538215602,0.062065020882480226,0.285406216436193,0.24555996580885764
